-4824 -4824 -4822 -4824 -4783 -4785 -4783 -4785 -4783 -4785 -4783 -4785 -4785 -4783 -4824 -4822 -4824 -4822 -4824 -4822 -4824 -5050 -5052 -5013 -4230 -1775 -2639 2405 2815 2813 1041 2557 3421 -4564 -4564 -7700 -5379 -5416 -5052 -4822 -4824 -2326 -2328 -1391 -3456 -7204 1410 2266 3692 3048 13419 14283 14791 12669 1157 -1257 -4472 -4335 -5052 -4822 -4824 -2326 -1432 5541 3662 2369 -5142 -2014 -845 1275 1277 1366 8527 934 8226 8086 -3789 -1199 -4824 -4822 -4824 -1430 -1432 2110 -2232 -2442 1688 1676 -1609 -1609 -1607 -4824 -4822 -2955 724 7190 10159 -303 -4822 -4824 -4824 -3926 -1609 3682 1466 1648 -371 -369 -4824 -4822 -4824 -5075 -5034 -5902 -6217 1220 7176 845 -3493 -4824 -4822 -3928 5238 9826 11192 42 -3547 -5073 -5075 -5073 -5036 -5034 -4785 -8715 -8752 479 11790 10029 -3493 -4824 -4822 -3928 7330 7567 1279 -3950 -5036 -5034 -4785 -5034 -4785 -7635 -7888 -8752 -5918 1047 2685 11358 -4575 -4824 -4822 -3928 8161 -42 1532 -4783 -5906 -5980 -8795 -8793 -8795 -8793 -7138 -7249 -6134 195 193 10037 7017 -4824 -4822 -3971 8412 116 2613 -7752 -7711 -7713 -7713 -7750 -7752 -6054 -6017 -5992 -5128 1277 1275 7543 6119 -4824 -4822 2394 6820 116 558 -4785 -4783 -4785 -4822 -4824 -4824 -8752 -8982 -7824 -4826 1201 2056 7543 6119 -4822 -4824 4043 10140 1765 3329 -5261 -5298 -5300 -5526 -6394 -6643 -6645 -5779 -8339 -5454 -2313 -5388 9143 5686 -4822 -4824 4045 6923 -318 1687 -3258 -6471 -6473 -7337 -7339 -7588 -6952 -6950 -6473 -3586 -2286 -6319 5897 2714 -4822 -4824 4045 8611 -1882 876 -1609 -2473 -5690 -5688 -4824 -5301 -5052 -5050 -4824 -1935 2171 -1844 5783 -5300 -4822 -4824 3149 9507 163 -3194 -2473 -2475 -1609 -4822 -1860 -5301 -5052 -4822 -4824 -1039 12684 10792 5349 -5300 -4822 -4824 3192 3782 -3552 -3959 -4822 -1609 -1607 -1609 -2088 -5301 -4824 -4822 -1937 4661 8252 10792 -8382 -4769 -4824 -4824 2326 6058 -1318 702 -4822 -4824 -4822 -1609 -2086 -1860 3763 3765 4659 13119 10790 -3555 -7790 -4822 -4824 -4822 -5805 2209 6926 9075 -2690 -6008 -3683 -1234 1980 5379 5381 5264 7794 4013 -7638 -7697 -7025 -4822 -4824 -4822 -5690 -5688 -3885 -3452 6222 8469 7996 7517 7519 5107 2618 2185 -5835 -2321 -5637 -5649 -7339 -5688 -4824 -4822 -4824 -4822 -4824 -4822 -4824 -4824 -4822 -4824 -4822 -4824 -4822 -4824 -4822 -4824 -4822 -4824 -4824 -4822 -4824 