-5507 -5507 -5505 -5507 -5453 -5455 -5453 -5455 -5453 -3318 -3316 -3318 -3318 -3316 -3370 -3368 -3370 -5505 -5507 -5505 -5507 -6285 -6287 -6235 -6181 -6255 8192 -3281 -10838 -10840 -23241 -21231 -13601 -9549 -3244 10002 16363 11894 -6287 -5505 -5507 -5505 -3370 -5453 -10866 -22463 -2551 5069 -4588 14469 -12430 -4804 -3056 17909 9467 7407 3374 11236 -6287 -5505 -5507 -3368 -3370 -3288 -10203 -3981 3607 7573 7575 18135 5762 11599 8659 8828 9423 3384 2631 6455 -5507 -5505 -3370 -3368 -4844 -4814 -10437 16438 9488 17494 25051 23247 5537 5793 9293 -211 -677 -2949 1634 -537 -5505 -5507 -5507 -5505 -3592 -3522 13549 25308 15503 16153 16131 23475 5600 9098 7430 1782 -10133 -4029 -10365 241 -5505 -5507 -5505 -5314 -148 19786 23830 13860 11877 -1045 24813 27097 27167 6600 5299 -10135 -9782 -10049 -129 241 -3368 -5507 -5505 -5507 4905 26921 15256 13199 18441 469 22785 20874 22572 -10684 -4152 -10185 -6970 -2427 -101 241 -3340 -5507 -5505 -5507 -1508 18457 8793 8998 14457 1011 -10509 9429 8845 15615 -316 -1894 1211 -1617 -1231 -7316 -3368 -5507 -5505 -5467 -5465 -13066 -13084 -14718 -16946 -10557 -10557 -10607 11197 19605 17470 -6864 -426 -1645 -1922 -7314 -3370 -5507 -5505 -13026 -13024 -13066 -5505 -5455 -3171 929 2788 4486 26857 8226 6501 9107 -13088 -4758 -1870 -7314 -3370 -5505 -5507 -5467 -13024 -5507 -5413 -3133 -3183 917 2050 -4072 -3340 12716 21527 7670 3955 -17023 -14075 -7314 -3370 -5505 -5507 -5465 -13026 -12974 -12972 -10784 -10782 -4760 -10686 -10698 -7732 -5477 13041 10730 8661 -4648 -20854 -18767 -3330 -5505 -5507 -5465 -5415 -5413 -1398 877 -4827 -4829 -3330 5330 2668 357 21263 16220 16222 14429 -1810 -18715 -3330 -5505 -5507 -5465 -5415 -5413 -6744 -4827 -4829 4486 373 1221 12 -496 -20 16220 16222 14429 18024 -18717 -3330 -5505 -5507 -5505 -24568 -24618 -18269 4488 2786 4283 900 2437 359 -1685 -20 16220 14431 14437 18024 -18717 -3276 -5507 -5507 -13133 -13031 -16938 -8686 2788 2575 4476 3217 -1729 -1364 -1425 -1645 16220 14411 14437 6591 -18745 -3368 -5507 -5505 -13083 -13083 -3486 -8582 -16443 -12018 -566 -5365 -7889 -9313 -9044 -11292 -2847 -4636 -4598 -13301 -7220 -3368 -5507 -5505 -13135 -11218 -7210 -5016 -16435 -4085 -4349 -11077 -11957 -13058 -13727 -13020 4849 2976 6893 10440 -14972 -10996 -5507 -5505 -5507 -5505 -5507 -5505 -5507 -2973 -1845 -2384 -2308 -2310 -4377 -4379 -4377 -4379 -4377 -4379 -4379 -5505 -5507 