-6555 -6555 -6553 -6555 -6501 -6503 -6501 -6503 -6501 -6503 -6501 -6503 -6503 -6501 -6555 -6553 -6555 -6553 -6555 -6553 -6555 -6562 -3592 -1647 -717 2090 6046 -2774 -1718 -1592 -1274 658 14453 14503 8753 5053 16552 18395 13427 -6553 -6555 -6553 -3583 -1636 -616 -3919 5926 10092 6869 15344 11369 15344 10669 3824 -2167 -1834 -1834 4340 936 -6553 -6555 -6553 -3583 -619 6217 381 -1907 2243 -3794 -6555 -6553 -6555 -10530 -10532 -5701 -17516 -17486 -5675 -5703 -6553 -6555 -6553 -3583 -671 320 15554 -882 2197 -3528 -6555 -6553 -6555 -6553 -11207 -11153 -18368 -17700 -6527 -6553 -6555 -6555 -6553 -6555 -623 1534 14626 -930 -3708 -3528 -6553 -6555 -7230 -7176 -11155 -22343 -17754 -17752 -6518 -6553 -6555 -6553 -6555 -6555 -3595 9342 15118 -878 -1041 -4203 -7228 -7178 -7176 -6503 -22345 -22395 -18429 -6553 -6518 -6553 -6555 -6553 -6555 -6468 -4272 4300 24336 8096 5357 -123 -779 -123 -11346 -13916 -22395 -10541 -6564 -6516 -6518 -6516 -6555 -6553 -6555 -6200 -4272 2860 18722 13109 13393 -782 -2711 -6573 -6360 -3831 -5731 -2023 -6516 -6518 -6834 -6553 -6555 -6553 -6507 -5525 -5891 -5275 -373 -9121 -6817 -3845 599 -1360 3532 2099 2546 -1066 -1107 -6555 -6832 -6555 -6555 -6553 -6823 -5841 -5891 -4631 4282 7311 8161 7061 7059 11974 -1496 71 9354 1274 5830 -2245 -6832 -6555 -6553 -6555 -6507 -6821 -6555 -6453 -6455 -5525 -6507 -6514 -9641 -10116 -6247 -3958 -1475 2605 540 -2278 -530 -6555 -6553 -6555 -6505 -6823 -6771 -6769 -6871 -6869 -6871 -10846 -10848 -11521 -6505 -2228 3586 11218 746 -1634 -11620 -6507 -6553 -6555 -6505 -4067 -6453 -6555 -6555 -10530 -10532 -10530 -6555 -7237 -6564 -1237 -2684 5881 9368 11693 -9019 -6507 -6553 -6555 -6505 -4067 -4065 -8144 -10530 -10532 -6555 -6553 -7230 -7237 -6564 -5099 -2684 7775 6980 11643 -6633 -5527 -6553 -6555 9139 -13778 -17307 -19334 -4165 -6555 -6553 -6555 -7239 -7237 -5101 -5099 -6555 7775 12377 10379 -6633 -5473 -6555 -6555 4419 12555 20 -515 -94 -4167 -6553 -6555 -5783 -5776 -5101 3252 8537 14961 15234 -637 -9642 -4437 -6555 -6553 2586 21726 6108 8406 3788 673 12050 -2582 -5479 -4346 5461 12875 14450 4601 -5127 -11840 -3675 -4437 -6555 -6553 -5611 2218 2329 5204 -2924 953 15696 17565 17567 18249 18251 2654 129 -7666 -7374 -8362 -8732 -8414 -6555 -6553 -6555 -6553 -6555 -6553 -5613 -5613 -5611 -5613 -6553 -5613 -5611 -5613 -5611 -5613 -6553 -6555 -6555 -6553 -6555 