-7319 -7319 -7317 -7319 -7317 -7319 -7317 -1287 -1285 -1287 -1285 -1287 -1287 -1285 -1287 -1285 -7319 -7317 -7319 -7317 -7319 -7381 -7383 8797 1307 8093 10590 78 -574 2418 3080 1320 -3569 -3571 -4681 -1110 3756 -3046 -6273 -7317 -7319 -7317 -1504 11746 16340 5144 2167 -324 -2904 4953 5813 10650 7947 8861 -3971 -535 1752 15254 1641 -7317 -7319 -7317 8861 11757 15230 5135 -319 -4962 -6070 -7319 -7317 -5545 -644 -2420 -1502 -12812 -4024 16599 1705 -7317 -7319 -7317 -394 -381 4879 10123 9104 9870 -7319 -7319 -7317 -5545 -5543 -3009 -3007 3368 -5325 7338 3586 -7319 -5545 -5543 -394 -365 3105 4008 -4161 8097 4820 -7317 -7319 -6134 -7906 -3009 2454 1896 6410 7402 251 -7319 -5543 -5545 263 1402 5027 4442 1121 8168 4348 2459 -6134 -6132 -1504 -7913 14187 9230 15896 -4319 -5438 -7319 -7317 -7319 -1475 -2066 3281 5627 10107 4847 4937 4233 10634 -9817 3770 14187 17215 4092 -6196 -5429 -5427 -7319 -7317 -7319 -7890 -7881 -2151 -2157 4530 14630 4275 14431 4318 17578 6326 5308 5982 6048 -5429 -6089 -7317 -7319 -7317 -7303 -7301 -7979 -7977 -9823 -9821 -9823 3272 8201 11651 14306 8191 6944 -5508 -7317 -7319 -7966 -7319 -7319 -7317 -7963 -7961 -7979 -7317 -7319 2476 8278 17283 10468 25097 7599 3275 -12043 -11868 -3551 -7323 -7966 -7319 -7317 -7319 -7303 -7961 -7319 2492 8294 15525 13527 1630 7010 8420 20555 21471 3688 -10497 -12031 -11905 -7966 -7319 -7317 -7319 -7301 -6084 5241 12986 5045 -4159 -6205 2582 2580 1993 -8632 7767 18037 5045 -11107 -7316 -10721 -5412 -7317 -7319 -5422 6297 13646 5705 -7319 -7123 5014 3242 3046 -6860 -7383 -1349 9078 12667 2294 5547 -7314 -3533 -7317 -7319 2492 15523 1917 2093 -7123 -8235 4820 3048 -7908 -6860 -7383 -7317 9078 6866 2294 -1491 -1506 -1759 -7317 -7319 2476 6298 -2383 -15440 -7317 -7319 4822 3046 -7972 -6860 -7319 -7317 9078 3048 -3490 -1491 -1506 -1757 -7319 -7319 2670 11879 -698 -11800 -7317 -5545 4822 4820 -6860 3567 -7319 3048 9078 3048 -3490 -2618 -1517 -1773 -7319 -7317 -7129 10000 15505 -4115 -10839 -12716 5966 3251 4363 3240 2132 8158 -140 -2352 -7407 -2629 6783 -5543 -7319 -7317 -7125 -7123 -1812 8905 595 4497 4515 7678 18051 19366 8997 8995 2966 2957 6531 2759 -7121 -8233 -7319 -7317 -7319 -7317 -7319 -7317 -7319 -7319 -7317 -7319 -7317 -7319 -7317 -7319 -7317 -7319 -7317 -7319 -7319 -7317 -7319 