-6622 -6622 -6620 -6622 -6591 -6593 -6591 -6593 -6591 -6593 -6591 -6593 -6593 -6591 -6622 -6620 -6622 -6620 -6622 -6620 -6622 2392 11056 13701 -1505 4026 4094 5441 10659 10712 11849 3516 10314 717 -5682 -12179 -15493 -15575 -6801 -6620 -6622 -6002 2810 9961 -2389 6329 4958 9152 2325 5450 5973 13476 7544 13739 4268 2154 -4689 -7455 -6801 -6620 -6622 -5893 2791 -4318 -5279 -4369 11504 3556 3024 -3905 -3948 2548 6293 16141 12374 13371 10056 2969 2569 2571 -6622 -5893 -6010 3861 -2891 -12469 -6239 -6556 4251 -4919 4162 4348 3840 5420 -2202 315 2119 -3196 -6620 2569 -6622 -6620 -6148 -5291 -4901 -7205 -7803 -6119 4869 4362 3742 -6085 4907 5470 2149 1342 2090 -3067 -6620 -6622 -6620 -6622 -5664 -6742 -6715 -15933 -6696 3272 2306 -7608 -2623 5449 12191 2794 1206 -888 -2946 -3067 -6140 -6622 -6620 -6622 -6736 -7979 -7948 -15919 -5892 -6861 -6546 3924 6568 10119 2007 1847 727 -2855 -3071 -3547 2496 2569 -6620 -6622 -7696 -7666 -6598 -14143 -5074 1269 4579 6533 -1267 4490 -8141 -1411 5533 -2669 -6099 -7274 2571 2569 -6620 -6663 -6661 -6725 -5905 -10376 2310 5099 12132 10446 9999 2886 4570 -4709 -1290 1965 -3857 1315 -6622 -6622 -6620 -7844 -7842 -7185 -6002 -5170 8726 13418 13871 8720 7962 -832 2500 8812 5128 13280 6379 -6994 -6622 -6620 -6622 -6663 -7842 -6622 -6632 -5211 -2535 -4869 -4137 -10856 -11980 -10455 3789 4555 17522 15362 7543 12499 -5740 -6620 -6622 -6661 -7844 -7815 -7813 -7803 -7160 -7053 -13823 -13825 -15058 -6885 2363 3666 13868 4370 14245 23210 1971 -6620 -6622 -6661 -6634 -6632 -6622 -6622 -13392 -13394 -13392 -6622 1157 2390 2447 -5494 -4321 -3557 -4322 17908 5746 -6620 -6622 -6661 -6634 -6632 -13394 -13392 -13394 -6622 -6620 1334 1157 -6801 -6620 -6622 -5551 -5072 2117 16743 10041 -6620 -6622 -6620 -5593 -8143 -13394 -6620 -6622 -6620 2569 -8036 -8034 -6622 -6620 -6622 -5601 2932 6427 14969 17687 -6622 -6622 448 -7036 2104 1147 1190 5115 2571 -6622 -7070 -6893 -6622 -1354 1737 2044 2932 -251 13193 15812 -6622 -6620 -15141 -4698 2972 10427 -1510 5348 -3932 -6227 -5370 -2062 -1178 -8300 4765 6700 3379 12696 1031 -5893 -6622 -6620 -4202 8466 8096 10584 4581 11327 11487 18883 18390 19802 11973 11964 8264 10506 128 -7473 -13540 -13283 -6622 -6620 -6622 -6620 -6622 -6620 -6622 -6622 -6620 -6622 -6620 -6622 -6620 -6622 -6620 -6622 -6620 -6622 -6622 -6620 -6622 