-5891 -5891 -5889 -5891 -5859 -5861 -5859 -5861 -5859 -5861 -5859 -5861 -5861 -5859 -5891 -5889 -5891 -5889 -5891 -5889 -5891 -5985 -5987 -5957 -5916 -5948 -8594 -11260 -12348 -12350 -2440 6781 5723 9018 -3550 -4157 3757 -4118 -4881 -5889 -5891 -5889 -5891 -5859 -8430 -11164 -10095 -102 -14745 1533 5796 17913 6015 8864 -1414 -9392 -8286 4057 -2769 -5889 -5891 -5889 -5891 -5819 -1509 -4131 -6951 -6228 -2163 14037 13674 13672 -6638 -8539 -5889 -14989 -13144 -1976 -3819 -5889 -5891 -5889 -5891 -4743 2657 6279 -1440 4683 13672 982 -3990 -5891 -5889 -9148 -9116 -14989 -14474 -4048 -5889 -5891 -5891 -5889 -4785 74 6841 6391 4681 5878 7778 -5889 -5891 -6500 -6468 -9118 -17635 -14506 -12605 -3952 -5889 -5891 -5889 -5891 989 6280 2204 10352 3834 -3404 -6500 -6498 -6470 -6468 -5861 -17637 -17665 -15115 -3990 -3952 -5889 -5891 -5889 -4785 1787 7744 870 3236 -3376 -6468 -5861 -6468 -5861 -14408 -15019 -17665 -8635 -4088 -3950 -5851 -5849 -5891 -5889 989 3233 13088 9446 83 -5851 -5780 -14301 -14299 -14301 -14299 -9069 -9202 -5947 -5849 -5851 -13647 -5889 -5891 -5889 32 9418 -295 5878 -8477 -8445 -8447 -8447 -12297 -12299 -7035 -7007 -8564 -5918 -5889 -5891 -13645 -5891 -5891 -5889 -2747 6636 909 13714 7035 1236 7035 7007 7005 7005 -4726 -3117 -1575 -12269 -3748 -5852 -13645 -5891 -5889 -5891 3817 15520 16370 16332 14770 14742 10824 10730 8080 7473 5572 8585 2641 2274 -1148 -8746 -7831 -5891 -5889 -5891 14432 15518 -6322 8171 -5979 -11786 -11788 -15227 -15229 -13937 -11387 -3408 -2705 8422 -418 -7027 -14411 -1438 -5889 -5891 13326 23344 17866 13593 -3992 -6638 -8539 -8537 -5891 -6594 -2982 -2980 -4420 -5524 8506 12140 -7025 -243 -5889 -5891 2713 13086 2546 6236 -8537 -8539 -5891 -5889 -6500 -6594 -4088 -2884 -4420 -5524 -2069 12398 3555 -243 -5889 -5891 -2070 -4744 -2804 1436 4686 -5891 -5889 -5891 -6596 -4695 -3992 -4783 -598 -1702 -2029 7356 3555 10367 -5891 -5891 -6465 1056 3470 205 11392 4684 -5889 -5891 -6594 -4601 -3992 -961 -1704 -1702 1460 -5074 1788 11696 -5891 -5889 -6428 -859 3677 -862 1432 10854 13993 14645 14647 9535 7758 1992 -7192 -6363 -1909 718 1413 4686 -5891 -5889 -8539 -8537 -2605 -6427 -7407 -2095 -3452 1643 12233 16637 16639 11709 11346 3918 8594 7883 -5718 -8537 -5891 -5889 -5891 -5889 -5891 -5889 -5891 -5891 -5889 -5891 -5889 -5891 -5889 -5891 -5889 -5891 -5889 -5891 -5891 -5889 -5891 