-5958 -5958 -5956 -5958 -5909 -5911 -5909 -5911 -5909 -5911 -5909 -5911 -5911 -5909 -5958 -5956 -5958 -5956 -5958 -5956 -5958 13455 15342 15389 18802 9497 8076 5637 7912 7910 8600 11920 9430 9475 2620 977 3411 1839 -160 -5956 -5958 -1468 2438 8289 3076 10933 10104 8564 8019 13369 11948 17284 19396 16902 -3128 -1348 1098 -57 -5958 -5956 -5958 -2041 -2043 1182 -7598 -6477 -4932 -2371 -2369 -5004 -5002 -1089 11000 10617 10600 -7019 -765 1585 -5958 -5956 -5958 -5956 -2637 -2776 -4153 -6078 -6646 -6645 -5958 -5958 -5956 -2043 -2041 5438 -2610 -8325 1006 1585 -5956 -5958 -5958 -5956 -2637 -6096 -7474 -6031 -6647 -6645 -5958 -5956 -5958 -3688 -7554 7364 -1585 -6727 -562 -4210 -5956 -5958 -5956 -5958 -5958 -6096 -6051 -6721 -6600 -7601 -7603 -7601 -7556 -3639 7111 5068 -2938 -8372 1728 -4210 -5956 -5958 -5956 -5958 -6096 -7743 -8433 -8413 -7556 -7554 -5911 -7554 -1996 -4337 3123 -5166 997 1364 1587 -4210 -6097 -5958 -5956 -5958 -7600 -7743 -6786 -6911 -6099 -6173 -8471 -8469 -4556 -7515 3732 -4317 2279 1587 -4210 -6788 -5956 -5958 -5956 -5957 -5955 -6647 -6645 -8377 -8328 -8330 -8330 -8375 -4462 -6314 3920 -5928 4228 1728 -4069 -6786 -5958 -5958 -5956 -6646 -6644 -6647 -5956 -5911 -5909 -5911 -4429 -4431 437 -6960 1354 -6678 1937 6500 -4554 -5259 -4431 -5956 -5958 -5957 -6644 -5958 -1993 -1995 -163 -165 -163 -1586 -2275 3527 14197 6754 8759 8472 3120 4803 -166 -5956 -5958 -5955 -6646 -6599 -2682 -2732 -6645 -6647 -2645 -1693 2451 -36 8849 294 4571 5604 -3736 -3611 -5003 -5956 -5958 -5955 -5910 -5908 -2043 -2043 -3464 -6427 -6425 -5004 -853 7064 -3475 -3115 6216 4112 -1900 -8203 -5957 -5956 -5958 -5955 -5910 -5908 -7381 -6425 -2512 -1089 -5002 3540 9336 7064 5760 6120 15472 7552 7413 1030 4232 -5956 -5958 -5956 -9629 -9674 -9677 -5956 -5958 -2041 -2043 -6649 -853 7064 -4429 1726 3373 -6099 -2776 -5838 -5908 -5958 -5958 -7379 -7457 -8204 -8253 -5956 -5958 -5956 -2043 -2732 -855 7064 -2540 1726 -2422 -6099 -5194 -5697 -5956 -5958 -5956 -7504 -7504 -6032 -8329 -9750 -9676 -7378 -9026 -4155 -633 7170 -4088 1284 -6405 -9940 -5006 -3401 -5956 -5958 -5956 -7381 -7379 -7522 -7522 -9892 -8471 -8468 -10115 -10113 -1722 6081 -5054 -2657 -4672 -7333 -7332 -4749 -7379 -5958 -5956 -5958 -5956 -5958 -5956 -5958 -5958 -5956 -5958 -5956 -2043 -5956 -5958 -5956 -5958 -5956 -5958 -5958 -5956 -5958 