-5186 -5186 -5184 -5186 -5160 -3836 -3834 -3836 -3834 -3836 -3834 -3836 -3836 -3834 -3860 -3858 -3860 -5184 -5186 -5184 -5186 -5576 1119 -492 7701 9001 7431 2148 6043 6041 9869 8619 8550 765 -3715 -6693 -118 -6718 -5578 -5184 -5186 -5184 2545 2724 3234 4545 718 -864 -4628 2558 1137 1947 8588 15115 3962 3002 3293 142 -3668 -5184 -5186 -5184 2540 3056 3418 -2441 -4616 -2335 -7059 -5186 -5184 -5186 -5940 -4056 7691 6747 2011 1544 -3276 -5184 -5186 -5184 2877 9225 3591 1693 -2919 -3867 -5186 -5186 -5184 -5186 -3519 -8098 -601 6233 7473 6243 -3274 -5186 -5186 -5184 2829 12274 3120 -1257 -5779 -3867 -5186 -5184 -5186 -6045 -4354 -8069 -12027 -3027 8593 16363 -3761 -5186 -5184 -3763 5834 10851 10720 -2660 -5190 -2807 -4719 -6043 -6021 -6019 -5162 -13364 -10386 -3268 18120 13985 -3761 -5186 -5184 -5033 4219 8698 7874 3147 -2838 -926 -634 -1491 -1926 -8569 -9430 -11481 -2538 4147 16210 15408 1999 -5186 -5184 -5186 5224 4677 5936 4172 3018 3758 -3987 -3985 -2661 -2659 -1625 6717 11603 15848 17294 8123 576 -5186 -5184 -5142 -1100 3093 3584 -63 4288 -2480 -2480 6268 6266 7328 5685 7577 12228 16546 7438 8125 5650 -5186 -5184 -7061 -6024 -6070 -5184 4093 4095 5516 5341 9123 9123 -9844 -9203 -4605 -3868 5375 6105 11342 5650 -5184 -5186 -5142 -7059 -4151 -4081 -4083 -4105 -5142 -5379 -9094 -9951 -8918 -5205 -10674 -10676 -4174 3967 11342 880 -3892 -5186 -5140 -7061 -7037 -7035 -7105 -6068 -6070 -9781 -9783 -10640 -7321 -7319 -6070 -6070 1359 5782 85 -3850 -3892 -5186 -5140 -5118 -5116 -5186 -5186 -8897 -8899 -8897 -5186 -5400 -4543 -5576 -5186 -3274 9605 13340 -3344 -3663 -3892 -5186 -5140 -5118 -5116 -8899 -8897 -8899 -5186 -4149 -5010 -5400 -4543 -5184 -5186 2486 7695 7785 -4769 -1772 -3892 -5186 -5184 -14126 -14148 -14194 -5184 -5186 -4149 -4151 -5402 -6435 -5186 -5184 2484 3812 4645 7688 -4769 -1746 -3894 -3276 -8897 -5374 -10411 -10437 -5184 -4151 -4149 -5186 -5109 -6045 3810 3812 5233 2989 4984 -2900 -6468 -1848 -3894 -3274 -4055 -2390 8089 1995 -3597 -5005 -1720 2657 2659 5304 247 6455 -4600 -6021 -4355 -6101 -1173 -3293 -5186 -5184 -6083 3068 4101 7189 11615 12954 13000 11747 5952 3869 3871 3869 3871 -4266 98 -3834 -8927 -8897 -5186 -5184 -5186 -5184 -5186 -5184 -5186 -5186 -5184 -5186 -5184 -5186 -5184 -5186 -5184 -5186 -4847 -4849 -5186 -5184 -5186 